{"tinybrain":1,"topology":[13,20,3],"activations":["tanh","tanh"],"weights":[[-2.850630446698,4.183057822659,1.937611610662,-0.005766299608,-0.248882402726,0.45211843541,-3.500638382263,0.421969701001,0.262734971568,0.407247330919,-0.003013532078,0.60275323796,0.088565317807,0.104492275598,0.990048250212,-1.308070572751,-0.111658317288,0.188016454477,-0.264051405292,0.910309766024,-1.020668256427,1.582121000468,0.38097187637,-0.649510353901,-0.651044769999,-1.116380656867,0.093495083293,-1.719925775803,-1.631101197814,0.040609868782,0.092052123895,-0.226641335622,0.512467627996,2.633158407843,-0.146817809016,-1.129270442151,0.456044595535,0.373480732978,-1.113169249385,0.618731063124,-0.905445376464,-1.019177104948,-0.35283342498,0.019848653724,0.101309187272,1.18752813595,0.130093114599,-1.986547733546,-0.073293625423,-0.216518817866,2.87622580506,1.764807653768,0.001123329389,0.407319920533,-8.040390225429,0.307732578589,0.151040512019,-0.075292241796,-1.119192159084,-0.25836908686,-1.213724091249,1.189729583621,0.081623681827,0.40642408074,-2.598297032668,0.310414649896,0.27942526364,-3.764324511346,-0.843945481206,0.728558999927,-0.108124401895,1.338147299174,2.807929016729,1.746408055567,1.450064439555,1.256991596257,-0.652464868991,-2.758609458936,0.069437831795,4.18889782252,1.423007043378,-0.087296375476,-0.156109146472,0.082400185547,0.178770751309,1.153895779607,0.574528067038,-1.035538866372,-0.037633223723,-0.393766018145,3.751661732617,-0.204188178643,-0.029604891706,-4.848546131564,-0.090572241405,-0.139641010135,0.042007347206,-0.128514202199,-0.202055481327,-0.969154056234,-0.166098199863,-0.268830072671,0.336758960448,2.781130850514,-0.180300012856,-2.2198305547,-3.413464324433,-0.045871900412,0.12620204363,-0.121205407032,-2.430091870767,2.733868843359,-0.961792999051,-2.448285847989,-1.305107527168,0.110897346794,0.523539977653,0.240833670171,-2.296381210356,-1.786182164274,-0.074186456594,-0.032043257601,-0.095338742489,1.383879936398,-1.105619287863,1.476872179865,0.642117460912,0.741077802609,-0.162355513522,0.536110160638,2.721445446681,-0.230105899867,-0.066698735418,-0.179167551375,-0.154303866108,0.195170138097,-0.175657879334,0.924019766956,0.605637025325,0.492527200789,-0.857382042198,1.217985015276,-3.067348160674,-0.109694336315,3.751775156906,1.695030113966,0.157538488182,-0.146339025473,-0.064075936603,2.049826079337,0.374026676907,-0.994237409346,-0.390905618943,1.071779348578,0.470287834664,2.269597505307,-4.437582582608,-0.219180117348,-0.337053704164,0.019000733171,0.094072920016,-0.09809719538,1.28081048972,0.316399176597,-1.230539564932,0.445230784985,0.261938238908,-1.173470834157,1.418001521993,-2.624368376065,-4.255724916222,-2.510435848769,0.207134727559,0.060993918689,-0.042632229079,2.713878376122,-0.6339096368,1.854885736991,-0.368389491378,0.21431911166,-0.060728268306,-0.392234959861,0.60533347015,-1.30439076119,-0.296248312621,-0.302716369547,-0.019052622331,-0.129664346617,1.608741647423,-2.004296941637,2.089707396339,0.72154799547,-0.270884126238,-2.081691452302,0.269772249441,-3.39681163903,-0.621801810706,-0.151376944813,0.195757635803,0.248531152535,-0.230097723249,2.189359978196,-1.14396165924,0.313373563869,0.696002742035,0.020945421834,0.07650886899,-1.426686170273,-0.172401754131,4.461106639413,1.775260212127,-0.002221068122,-0.09917318074,0.100521640764,-1.942740139599,0.616424016131,-1.91999300423,1.671571019323,-0.002912094843,0.942634223927,-0.058535258267,0.376842197175,0.488766055821,2.506336789781,-0.331537735494,-0.253583723126,-0.430120162582,-0.046679975603,1.681510531035,-4.628719360227,0.437911603073,-0.640578693689,-1.190157232212,-0.334881473396,0.10988501338,-0.292245113426,-0.20625694189,-0.014371025222,-0.080287997819,-0.006188956204,-0.355139075266,1.979083066242,0.051265973449,0.481186543823,0.520408763716,-0.045960638779,0.210065692465,-0.002860353328,0.657301993113,1.09935672994,-0.028952080138,0.264599067628,-0.162553947641,-1.843775284473,-0.060878385122,-2.303204743268,0.34621142924,-0.321031653212,1.163719877757,2.864325305809],[2.988041409246,0.560526273149,0.092813155063,-1.379715422514,-0.070379357957,-0.239408999748,-0.535786809589,0.058512120359,-0.080862596376,-0.013824845181,-2.187114700766,-0.01980695976,1.977659986005,2.520440595621,0.916257812844,-2.06950195736,-0.281010194311,1.676481905204,-0.376571464983,-1.079868299633,0.022958146109,-1.56427769462,1.526564722704,-0.079726431753,-0.695061919188,-0.321082220342,-1.303633928379,-0.882852970809,-0.901144758595,-2.077493399807,-0.092698485227,-1.44705631494,-0.143699700384,0.240231105977,-0.129836731519,0.118533987113,-1.524168869852,-0.453419998303,2.290173242068,-1.023406073945,0.00586046255,1.244894913061,-1.280571684303,-0.07412437263,2.290278403139,1.154915152181,1.539324356062,2.997916712723,3.4096824195,1.593406004326,0.028242292811,1.951379604468,-0.022792187328,-0.03441748447,-0.403032016857,0.078852910607,-1.791491081774,2.127706255512,0.863898533652,-0.623292606629]],"biases":[[-2.484702752319,0.954459367806,-1.687131877266,-1.145034804094,-0.029074879596,0.700087642911,-1.850607709246,-5.475616736505,2.933044586987,-0.653412492706,2.05825386595,0.639566845685,0.130614117337,2.591761510494,0.264643321704,-1.215934180493,-1.279743287072,-3.060694876351,0.031478554127,-1.525519154183],[0.75680699637,-2.727325021614,-2.443644829512]],"vocab":[],"labels":[],"meta":{"trained_by":"evolve","seed":42,"loss":21.0566,"epochs":500}}